camada 1
neuronio;b;w_0;w_1;w_2;w_3;w_4;w_5;w_6;w_7;w_8;w_9;w_10;w_11;w_12;w_13;w_14;w_15;w_16;w_17;w_18;w_19;w_20;w_21;w_22;w_23;w_24;w_25;w_26;w_27;w_28;w_29;w_30;w_31;w_32;w_33;w_34;w_35;w_36;w_37;w_38;w_39;w_40;w_41;w_42;w_43;w_44;w_45;w_46;w_47;w_48;w_49;w_50;w_51;w_52;w_53;w_54;w_55;w_56;w_57;w_58;w_59;w_60;w_61;w_62;w_63;w_64;w_65;w_66;w_67;w_68;w_69;w_70;w_71;w_72;w_73;w_74;w_75;w_76;w_77;w_78;w_79
0;-0.019133035;-0.17281348;-0.23787658;0.09239342;-0.01745683;0.18906948;-0.07608077;0.021815946;0.13881461;-0.1387875;-0.010938957;-0.19446453;0.20197976;0.008447377;-0.1454274;-0.05480206;-0.19834954;-0.10637837;-0.19698289;0.15614583;0.105408296;0.12389949;0.1393335;-0.006033804;-0.03527399;0.09597723;-0.14975736;0.1177008;0.15796067;-0.35747522;0.09141405;0.2018931;0.19682871;-0.035740115;0.15703508;-0.0075476873;0.097603194;-0.3530899;-0.22044712;0.08907659;-0.003997968;-0.18983148;-0.009201837;1.22092715e-05;-0.024464538;0.2131672;-0.0213406;0.16698636;0.25188538;-0.058536686;0.15373428;0.06438511;-0.108293906;-0.08322471;0.022970732;-0.2814834;-0.20968042;0.01616891;0.0035044674;0.03496934;0.046408847;-0.06317105;-0.09624917;0.12503041;0.29981673;-0.029729621;0.015723597;0.015495137;-0.09598517;-0.07497278;-0.05519961;0.06355872;0.14855357;-0.1458573;0.13548507;0.22379068;-0.08146892;-0.010467229;0.30045384;0.16662379;-0.015206934
1;-0.04631207;0.071604714;0.18314834;-0.23027779;-0.18312982;-0.30529493;-0.09402962;-0.28459498;-0.17495562;0.031480975;0.14531355;0.02830159;0.034842677;-0.078386985;-0.10599505;0.055496946;0.035724137;-0.21814759;-0.04927958;-0.21540043;0.05515431;0.19556263;0.27714354;0.12415115;-0.16643557;0.15019725;-0.025522104;0.06518818;0.14598577;-0.623954;-0.20376933;0.21527223;0.057757773;-0.10759448;-0.17514113;0.24439698;-0.12140051;0.0061292835;-0.045131177;0.09461354;0.046126116;-0.043978896;0.28044063;-0.055740703;-0.12969054;-0.17734489;-0.28523096;0.22008234;-0.2775441;0.27993798;-0.056245238;0.10336173;-0.26562127;-0.026284486;0.0025697972;0.17107132;-0.011606241;0.13534562;0.09401121;-0.03318368;-0.15180825;-0.2878117;-0.009389908;-0.37278742;0.042289756;-0.26256952;0.008809688;0.15020946;0.1686522;-0.10408054;-0.024704829;0.07407541;0.30531123;0.39814392;0.14090987;-0.051398374;-0.051421605;-0.077106506;-0.10999741;-0.003311085;-0.062517904
2;-0.034510784;0.22367577;-0.016059902;-0.058017045;-0.18828438;0.06350473;0.2072063;-0.16258034;0.17467818;0.08943379;-0.10212382;0.00074280374;-0.02148002;0.27765256;-0.15521832;-0.018041447;0.12279267;0.009305567;-0.107961155;-0.069103494;0.031228557;0.1573304;0.038157757;0.21712449;-0.06183148;-0.120459504;0.06947716;0.17047594;-0.13769859;0.058133006;-0.2168941;0.05608644;-0.19022448;0.019352946;-0.20250505;-0.1883789;0.19918692;-0.11037247;-0.14604446;0.10070589;-0.055925637;0.0701721;-0.059548214;0.20434718;0.19284481;-0.13633724;-0.06717605;-0.06530263;0.15398082;-0.20815241;0.220776;-0.1869538;0.03839867;0.024788544;-0.07444975;-0.13019447;0.12132464;-0.13965994;0.13004759;0.077931784;0.19370486;-0.111503296;-0.1379703;0.109821476;0.10564519;0.005864558;0.019080251;-0.12141664;-0.12270133;0.18049066;-0.19343372;-0.11851393;-0.21278636;-0.07999921;-0.026503978;-0.14818405;-0.16290979;0.05896271;0.021525742;0.21345176;-0.028249798
3;-0.1570533;-0.18681958;-0.025351653;-0.23685561;-0.17069936;0.09129346;0.0071213576;0.004131281;0.12974198;0.15837486;0.17858711;0.0071779867;-0.23619978;0.16028789;-0.30754745;0.040826276;-0.37593627;0.22120394;-0.3607036;-0.0068112016;-0.04956591;-0.2003352;-0.13306186;0.03786231;-0.25430006;0.03447164;-0.16021423;0.20744829;-0.011070873;-0.10361029;0.18711108;0.12668952;0.19597512;-0.058795813;0.034486372;-0.14883083;-0.1264835;0.17008868;0.12465308;0.013152898;0.013146144;0.15131436;-0.09768828;-0.21082607;-0.07340958;0.23173334;-0.19469877;-0.13539875;-0.0038768726;-0.05035679;0.15030055;-0.10931461;0.011871842;-0.018642798;-0.00235173;0.03452705;0.18158522;0.17198713;0.012353627;-0.020118767;0.097825475;-0.1990832;-0.0718016;0.03150326;-0.004443338;0.049406517;0.03633481;0.10384044;0.14011338;-0.14334145;0.11192237;0.03438523;-0.059942443;0.05978245;-0.20207039;-0.20943823;-0.22085528;0.100033626;0.024592629;-0.084834255;-0.18177567
4;0.04422702;-0.13472512;0.2284645;0.02276237;-0.13746041;0.008076049;0.12263825;-0.08107781;0.062443774;-0.029594108;0.00023199139;0.16736312;0.21544158;-0.007360378;0.13034822;-0.13755453;-0.12245013;-0.065136895;-0.014283293;0.15360622;0.17970224;0.027847504;-0.13990572;-0.1951708;0.302543;-0.15051863;0.1274377;0.17465189;-0.21301939;-0.3703701;-0.3495212;0.11173128;0.064738475;0.16359565;0.14330216;-0.071470395;-0.43786147;0.16097762;-0.12159028;0.06306952;-0.13880427;-0.19594209;-0.17222248;-0.2091555;0.20500076;-0.1325295;-0.004369783;0.20955934;-0.21800414;0.13516437;-0.18328442;0.08164585;-0.0028674374;-0.206422;0.004830111;0.16301587;-0.06544296;0.06462413;0.1286436;0.029997777;0.032551955;-0.17942974;0.10936631;0.09984887;-0.19085723;-0.021094803;-0.0024169222;-0.20677947;-0.38338876;-0.07411173;-0.16335681;0.061718337;-0.08626485;-0.0630176;-0.14563413;0.03435154;-0.08718978;0.24671672;0.13825437;0.30063516;0.03371488
5;-0.0068233944;-0.031527605;-0.19066682;-0.14891131;0.053805247;0.1895409;-0.18553631;0.2133422;-0.23500942;0.058979973;0.23231538;0.21686351;0.10332236;-0.010538257;0.10186786;-0.010675535;-0.15977658;-0.048708737;-0.10075515;-0.040134713;-0.012695074;-0.14418948;0.028494844;0.04718933;0.048638072;0.06918416;0.17912523;-0.20698558;-0.15057316;-0.16432752;-0.041680723;0.05025271;-0.12766202;0.06620409;-0.17432661;0.10632392;0.064491145;-0.12438804;-0.12965521;0.18659641;-0.19807945;-0.11930485;-0.17537248;0.059144653;0.12069241;0.27948564;-0.16895558;-0.19493529;-0.16111663;-0.1365158;0.054660086;0.15879491;0.1599908;-0.16523284;-0.12642431;-0.036874887;0.13666654;0.08483962;0.043786865;0.024103869;0.11298567;0.15597114;0.1380941;0.093161486;0.24142107;-0.07613787;-0.0508664;-0.23268393;0.021024171;0.098911;-0.023137957;-0.19626479;0.035267495;-0.033188224;0.15631905;-0.12106009;-0.029110257;0.22929884;0.11579738;0.020173812;0.013925239
6;-0.07519188;0.061855566;0.03691898;-0.28624186;-0.21122241;0.20148073;-0.115250915;0.20099911;-0.17926238;-0.0026135023;0.23084696;0.030255176;0.03269026;-0.08377166;-0.12428412;-0.03904015;-0.044107296;-0.19172965;-0.068505816;-0.043033823;-0.18528873;0.11218703;0.09678745;0.064247966;-0.19673681;-0.05163881;0.07668612;-0.070993006;0.13632987;0.07252848;-0.10202321;-0.20710504;0.02488683;-0.120878205;-0.16512331;0.07557969;0.06345583;-0.20106697;-0.19859846;0.19088012;0.009578988;0.13046029;0.15842614;0.17033164;-0.09780949;0.11562523;-0.15133289;0.07603005;0.0663441;0.20816797;0.039953586;-0.17859781;-0.017699251;-0.018613508;0.1376137;0.09223151;0.086262345;0.047888897;0.057583485;0.18370384;0.09022989;0.024623295;0.09808154;0.02665828;0.15199395;-0.26151964;-0.07556571;0.13231324;-0.13816725;-0.20823847;0.14736612;0.040129304;0.13162994;-0.14526281;-0.16920272;-0.2217085;0.16454601;0.06737676;0.033491507;-0.012102723;0.04389833
7;-0.026014373;0.11001818;0.20525844;0.06483536;-0.12670778;-0.24177447;0.0056617837;-0.13544872;0.048686378;-0.022698576;-0.15588777;-0.12569365;-0.16964929;-0.014756394;-0.20364079;-0.0251313;0.036217935;-0.1728777;-0.1461615;-0.17305008;-0.123212405;0.06298739;0.00034539067;0.028867723;-0.09842697;0.12732564;-0.18397851;-0.27201214;-0.10165113;-0.33848217;0.116299056;-0.03587181;-0.22269545;0.1995481;-0.2082973;0.07943752;0.101173475;0.009656045;-0.13586368;0.047563493;-0.18611868;-0.19120769;-0.12143042;-0.20455308;0.1615936;0.031251367;-0.032653596;0.052834157;-0.08153797;0.08999395;0.16041844;0.1415778;-0.1005032;-0.10193644;0.11520271;-0.13856976;0.116208695;-0.071199276;0.09528699;0.12673077;-0.15140973;0.05093006;0.063245565;-0.18242572;0.23231165;0.15844876;0.07369391;0.28661165;-0.077389136;0.09289892;-0.08466664;-0.044234917;-0.17581804;-0.12357766;-0.06682882;-0.13516772;0.07816868;0.06791084;0.036963627;0.13948478;-0.0905809
8;-0.18900165;0.074111015;-0.041095085;-0.016926503;0.014920905;0.20794879;-0.013896922;-0.15866959;0.17504957;-0.020778663;0.30488622;-0.036455154;-0.24181369;-0.11188442;-0.2173384;-0.0906378;-0.36426923;0.029610917;-0.31144032;-0.009789765;-0.11884204;-0.18169262;0.12868886;0.21203919;-0.07836797;0.1582243;0.15270166;0.039579615;0.010574506;-0.052656848;-0.2795548;-0.04321488;0.0027381945;-0.10033041;-0.09461748;-0.08008935;0.07898336;0.10723718;0.061002996;-0.12951367;-0.09610579;0.04247112;-0.042333778;0.0919295;-0.089446455;0.18866782;-0.06298061;-0.05417011;-0.15610439;0.12453797;-0.18436214;0.083675995;0.1689833;0.14225832;0.09473236;0.16498208;0.099497244;0.12619816;0.03376638;-0.057767;0.12869899;0.12749736;-0.0189146;0.15031363;-0.0041604824;0.16221926;-6.861141e-05;-0.06865312;0.05116964;-0.110310666;-0.19759932;-0.21410882;0.11413754;0.1108396;-0.1255213;0.15404819;0.13770826;0.21133518;-0.16411296;0.10494654;0.16263674
9;-0.16823986;0.11964437;0.100461885;0.05476206;-0.16455948;0.18530469;-0.10090721;0.14127831;-0.10015587;0.19740544;0.33217;-0.34802344;-0.28393713;0.24391928;-0.17937154;-0.16523933;-0.27794847;0.0914195;-0.3593493;-0.12679508;0.22339256;-0.21037798;-0.1743693;0.102804534;-0.019401772;0.06645717;0.009641451;-0.152766;0.22590916;0.3116231;0.07768739;0.0029161628;0.1033531;0.18307808;0.1250072;-0.24867164;0.12016271;-0.026709711;0.17249244;0.099372424;-0.2010499;0.17551546;-0.18933697;0.103894435;0.062456794;-0.16128606;0.109276034;0.03616027;0.13094705;-0.049494017;-0.04623347;-0.038985707;0.042099502;0.09989343;-0.043557517;-0.0018816789;0.022222782;0.09470249;0.030147068;0.24352078;0.24765614;0.10512499;0.08649239;0.052863613;0.15621307;0.07741509;0.0043519167;0.27204686;-0.040623836;0.03710033;-0.15321842;-0.078974076;0.13287054;-0.12651022;-0.0444101;0.008600995;-0.040784903;-0.10427079;-0.110666074;-0.07970135;-0.16674271
10;-0.015389664;0.16281344;-0.10032279;0.19791678;0.20301796;-0.098855495;0.045928635;0.19084457;-0.07024809;0.16707988;-0.1264151;-0.16208147;-0.19387645;0.20290674;-0.17864688;-0.0034989119;-0.030294051;0.040158466;0.09146541;-0.2209423;0.07400419;-0.047621895;0.1548429;0.06848117;-0.11121897;-0.05543067;0.037183788;0.028857457;-0.12817594;0.71064585;-0.23918483;-0.26949242;0.07415002;-0.17454614;-0.10072878;-0.26951528;0.18736863;0.04902841;0.20177028;-0.0148788;-0.025898652;-0.022926703;0.07344857;-0.23841667;-0.023109807;-0.10984917;-0.27447158;-0.06859185;-0.05780574;0.061260983;0.18324208;0.061654545;-0.25470537;-0.07480854;-0.21334237;-0.03420905;-0.043900944;-0.13082433;0.05162249;0.21565232;-0.24198906;0.20518546;-0.096627295;0.27157792;0.062657006;-0.11939184;0.031529933;-0.1866145;0.18741569;0.10552512;0.06802727;0.21948878;-0.040559042;0.157512;-0.041517843;-0.08843485;-0.23102506;-0.3481605;-0.17283545;-0.3253878;-0.11250998
11;-0.1294398;0.16968739;0.026147775;-0.032589663;-0.216831;-0.008791529;0.18725903;-0.14488931;0.012843091;0.21854572;-0.009555998;0.0030695326;-0.32900554;-0.016216429;-0.0059264023;-0.2184432;0.0030613912;0.017382488;-0.32035613;-0.07458046;-0.15212123;0.094343156;0.18370199;-0.019590726;-0.14694187;-0.092721656;0.15599808;-0.009946319;0.17607309;-0.343225;0.07967682;-0.15935709;-0.008582646;0.2199466;0.07487317;0.013380372;-0.2641822;0.2259192;0.13260344;-0.17124954;-0.054087073;-0.17649317;-0.124457166;-0.057839394;0.08511124;-0.06770021;0.04280641;-0.1375843;-0.011644488;-0.043718617;-0.30588904;-0.06943578;-0.2313134;-0.06901979;-0.15110044;0.04124745;-0.12132395;0.18682136;-0.022926155;0.27575958;-0.22245623;0.07834789;0.17820953;-0.1648371;-0.14468749;0.1327125;-0.013273683;-0.048660673;-0.10947094;-0.18880674;0.047524318;-0.15118113;-0.01627012;0.27555698;0.01607752;0.2280825;0.13504978;-0.17753965;-0.040960886;-0.011099998;0.10491176
12;0.1308934;-0.021104353;0.07092376;0.08543667;0.008706301;-0.1889541;0.14009275;-0.05303288;-0.073327556;-0.16131556;-0.16752817;-0.1754703;0.276823;0.13768005;0.2446406;-0.20445855;0.2283054;-0.18330926;-0.045604195;-0.08636351;-0.04167834;-0.022443233;-0.20264034;-0.18467689;-0.03708973;-0.14356901;-0.16858561;-0.04962985;-0.1132761;0.025589442;0.24080718;-0.23564328;0.15189326;0.148567;-0.16821498;-0.18143684;0.29130435;-0.03766736;0.069953114;0.050477937;-0.19276445;0.025626805;0.010384548;-0.0402521;-0.0041470253;-0.120982796;-0.17450304;0.12758753;-0.103259504;0.0004827533;-0.21384549;0.03645031;-0.078795925;0.10930741;0.009749643;0.021331597;0.089100346;0.008535623;0.09578202;0.19972026;0.088824175;-0.1743522;-0.16266787;-0.17972389;-0.112406366;0.0008836882;0.033128843;0.29003707;-0.09661857;0.110792354;-0.1723004;0.116977215;-0.047789652;0.07958766;0.1677572;0.097631805;-0.14513342;0.20286138;0.13135272;-0.19299649;0.06474931
13;-0.0026197925;0.06533535;-0.11237139;-0.18349464;0.14642633;0.17743403;0.22100294;-0.08764551;0.106720366;0.27458766;0.22651982;0.13381447;0.01881435;0.17522113;0.18553409;-0.08205077;-0.08091482;0.07184042;0.016332146;0.077998;0.049889937;-0.29197887;0.09767135;0.036060344;-0.15525843;-0.2810056;0.026381731;-0.13276389;0.029204655;0.054841302;-0.25030434;0.15358052;-0.033938844;0.012146682;0.09076175;-0.05912603;0.1395214;-0.081933014;0.1717673;-0.043622226;-0.21193323;-0.10247827;-0.17322166;-0.20735273;-0.026927622;0.17350823;-0.086496696;0.11696779;-0.058669653;0.040474888;0.096811235;0.07275278;-0.12434314;0.09443662;0.18893531;-0.166744;-0.10972732;-0.22087012;0.038113106;-0.14633113;0.19064257;-0.10780266;-0.10332394;-0.28809407;0.06276175;0.14085792;0.026094818;0.14267667;-0.20145257;0.023536578;-0.103783906;-0.1452668;-0.017051207;0.1836713;-0.20344076;-0.12011634;-0.04144873;-0.18822667;-0.08679781;-0.1358895;-0.035561062
14;-0.030612279;0.058156587;-0.037203673;-0.067810394;0.19177492;-0.13130808;0.23618087;0.21260136;-0.24807584;-0.09204912;-0.0509344;0.05554838;-0.07424175;-0.01711665;-0.22967385;0.029294327;-0.09893373;0.14845817;0.06939127;0.014745817;0.12516214;-0.04995192;0.19500828;0.041870948;0.04606687;0.23862773;-0.1541216;-0.20449355;-0.030971661;0.10886912;0.008988198;0.20713139;0.098667964;0.035521768;-0.052438296;-0.14436834;-0.1292589;-0.124096006;-0.027769871;-0.14566304;-0.16394615;-0.086942345;0.12519944;0.13716932;-0.25249976;0.08413196;0.0125136925;0.003712308;0.05184784;0.13763793;0.100224264;0.11670569;-0.045239512;-0.1597331;0.11409945;0.23774943;-0.09931657;-0.06566422;-0.108612716;0.1402954;-0.09063257;-0.22203243;-0.1443122;0.12225472;0.041326825;-0.012260406;0.060409974;-0.2557191;0.09455439;0.092293456;-0.20630246;0.17304087;-0.22668391;0.37368307;0.036555726;0.05385391;-0.13272983;-0.0401486;0.114087164;0.027892677;0.051982265
15;-0.10314169;0.17154841;-0.16840714;-0.0642918;0.19421373;-0.15276784;0.030612547;0.059523754;-0.021781072;-0.018776031;0.12655029;0.21868257;0.108954825;-0.1305471;-0.29030454;-0.07260214;-0.17979379;-0.116237395;-0.29137608;-0.13235682;0.098952815;-0.009224423;0.18483928;-0.018668225;-0.10864643;0.09220829;-0.06657168;0.08774147;0.119977094;-0.20613624;-0.11283351;-0.10820226;-0.013409228;-0.20737012;0.17582972;0.027749918;0.03318256;-0.008448211;-0.16554019;-0.08855119;0.12653808;0.18382631;0.02032904;0.13655521;-0.111856855;0.023798762;0.039097726;0.16079192;-0.15662506;0.23521994;0.18927567;0.08444914;-0.24565701;-0.19183429;0.1173254;-0.1206495;0.035911303;-0.14804766;-0.100491054;0.29899487;-0.1704083;-0.23952079;0.17065352;0.17139888;-0.046599276;0.2197708;-0.02765649;-0.07192474;0.27134252;0.11966409;0.08830862;-0.033293683;0.107619554;0.47347224;0.27747276;-0.14743659;0.10663822;-0.29252407;0.09865468;-0.05533547;-0.25961125
16;0.24172181;0.22622871;0.04686448;0.40907973;-0.1389589;-0.15373127;0.15229283;0.019270958;0.20396538;-0.08355682;-0.3363049;0.099154346;0.26484436;0.27170616;0.26251724;0.06084855;0.46114534;0.08420913;0.03558416;0.07219969;0.102076724;-0.016327513;0.078125894;0.09532517;0.2257209;-0.30946034;0.146391;0.26334327;-0.07625305;-0.113268524;-0.017830055;-0.21679065;0.002581154;-0.199491;-0.17554292;-0.18449633;-0.18843415;-0.22826521;0.16942403;-0.24243024;-0.03996708;0.010388118;0.075260215;0.09293823;0.0010077535;0.1539394;0.013037259;0.15739681;0.1123742;0.21617903;-0.01797406;0.09563117;-0.103099525;0.021373903;-0.15838866;0.043403268;0.03688521;0.096682064;-0.14891037;-0.020997114;0.045002226;-0.14467616;-0.17216942;0.12562156;0.07773023;-0.249144;-0.029379621;-0.19826122;0.11550843;-3.7252903e-05;-0.14527345;-0.12739608;0.021073112;-0.092492625;0.03198357;-0.10287324;0.140675;0.06418755;-0.24349737;0.10810264;-0.2492229
17;-0.16824041;-0.12859042;0.022538884;-0.1367806;-0.19984257;0.06812428;0.13791409;0.091637075;-0.11293243;0.09463648;0.119883254;0.018204609;-0.35304278;-0.06660655;-0.29593676;-0.034678012;-0.13025782;0.04475759;-0.15813243;0.16312613;0.052197203;-0.18941194;-0.20509297;0.13026187;-0.08191748;0.22013444;-0.08737351;0.15619807;-0.03093241;0.12544571;0.38839307;0.081924275;-0.039979644;0.05371359;0.16549732;-0.011196201;-0.1407295;0.037155766;-0.15531635;0.07925463;0.06751773;-0.051511906;0.1777007;-0.0699792;-0.054054398;0.067339584;0.18137588;-0.22459593;-0.038706932;-0.18434806;-0.098527364;0.023065343;0.2244251;0.23085561;-0.08265942;-0.16096677;-0.016008252;-0.21347065;-0.22372007;0.13962004;-0.14075969;0.14568688;0.1234617;-0.0864103;-0.08077114;0.059560508;-0.03977206;0.050466392;0.07442793;0.12161742;0.025035337;-0.06565779;-0.022329729;0.19978541;-0.063410595;-0.13030776;-0.1710287;-0.047386143;0.023416243;-0.280277;-0.012243638
18;-0.056813966;0.14546667;0.11240588;-0.04005224;0.17218901;0.24793479;0.071750954;-0.035757758;-0.13858795;-0.28293055;0.26930007;-0.26837835;-0.16078794;-0.28653416;-0.24115519;-0.09556392;-0.15647845;-0.002032727;0.061846312;0.017461285;0.05479984;-0.06584725;-0.20808122;0.14143658;-0.02723488;0.31032568;0.10889522;-0.038356315;-0.23074213;0.22488467;0.37959677;0.05738811;0.19601598;-0.12390878;0.17595403;0.045591272;-0.031443015;-0.023823667;0.19581279;0.21927948;-0.2507834;-0.06491848;-0.06319533;-0.034230847;0.24668844;-0.20659122;0.07231423;-0.19064294;0.21331604;0.20982672;0.03365029;-0.17695312;0.049315736;-0.13117139;-0.028875014;0.111111216;0.13822988;0.0774129;0.026180627;0.1252268;0.21005559;-0.115712196;0.0475655;-0.0710674;0.16502027;0.29247048;0.009268299;-0.019651782;-0.080225;0.110730335;0.10861559;-0.10988465;-0.110401765;0.018779151;0.12628707;-0.025772713;0.2570448;0.16548567;-0.038429484;0.112517856;0.02627394
19;-0.06642462;-0.17183895;-0.061951987;-0.25826547;0.10406838;-0.14631556;-0.21820855;0.19456805;0.15900041;0.23158303;0.0924868;-0.15745282;0.15216635;0.05789065;0.0023122174;0.12278502;-0.18182084;0.10051976;0.11984342;0.111766234;-0.19537899;-0.176127;-0.013629295;-0.0718865;0.07577374;-0.12556772;-0.028995866;-0.13648087;-0.008372244;0.19733799;0.039933722;0.16748428;0.12021439;0.045526817;-0.034587663;-0.021278698;-0.12749326;-0.12328402;-0.22229914;-0.026328746;-0.0024083226;-0.15646218;0.18927172;0.14156702;-0.11512242;0.009229146;0.029142572;-0.15677094;0.11289699;0.16219537;-0.083712175;0.0008289653;0.1252472;0.20668033;0.07888582;0.17421123;-0.108916804;0.13873331;-0.13558473;0.103794865;-0.11530279;0.20591708;0.06685856;-0.16282932;0.14138673;0.08700401;-0.039789557;0.08052138;-0.037869398;-0.1783031;0.036014482;0.049387746;0.15473793;-0.25748995;0.17154734;0.13400324;0.22463807;0.0721805;0.21854997;0.21173096;-0.08387251
20;-0.0019606696;-0.07473416;0.07700146;0.05023135;0.09707771;-0.09156947;0.22571506;-0.028215015;-0.10658599;0.007149625;0.20768048;0.12736706;-0.16114956;-0.11518557;0.2055375;0.19863136;-0.06880342;0.22273518;0.25941125;0.20173801;0.11297701;-0.012189386;-0.21390682;0.0020391522;-0.0030255825;0.09762325;-0.24210922;-0.17177056;-0.05923718;0.075395696;0.059726495;0.18977605;0.0123618385;-0.04592085;-0.09443715;0.1381594;0.3520553;-0.1350228;0.06826923;-0.18709922;0.10447437;-0.04889668;0.20664495;0.15584752;0.07672204;-0.017951585;0.131556;-0.08223403;0.083395384;0.2795376;-0.16593894;0.12884232;-0.022170277;-0.12927175;0.20855814;0.031178212;-0.061996385;0.15105744;-0.29399383;0.21536398;-0.16618015;0.09723662;0.12131385;-0.30313984;0.0049520563;0.18747303;0.0012263057;0.22791214;-0.017179502;0.002809137;0.2253028;-0.0105836475;0.19306472;-0.22073716;-0.02792326;0.12784098;0.032177355;0.19039258;0.25705275;0.24587561;-0.02976474
21;-0.049991243;-0.20411621;0.06170571;-0.013014973;0.10626073;0.06840362;0.0016747976;-0.14314298;-0.20027192;-0.048288178;-0.1642957;-0.07990078;-0.005182496;-0.25533274;0.0724501;-0.15271956;0.03885477;0.07123648;-0.24995859;-0.07517852;-0.21548375;0.19555452;0.11415296;0.18993832;-0.025459873;-0.068969056;0.15629709;0.059216022;0.016499838;-0.15185578;0.20960811;0.057926945;-0.009772156;0.13182698;-0.20780987;0.074664444;-0.06409184;0.13038462;-0.07119654;-0.108419776;0.14838123;0.0010408727;-0.11411313;-0.10083635;0.004378699;-0.2398217;0.20800626;-0.16938952;0.007518294;0.049823377;-0.20698431;0.078921944;-0.04535725;0.05645913;-0.21819665;-0.124916136;-0.094593205;0.036159433;0.06789841;0.040715016;-0.092342265;0.16856776;0.0714044;-0.28101897;-0.26519266;0.12789232;-0.0552219;0.20285991;0.13615368;-0.0430049;0.17493217;-0.16681835;0.01114468;0.06105893;0.012059902;0.1674662;-0.21372145;0.22858113;-0.01322924;0.11773932;-0.16426201
22;-0.032654434;-0.10232903;-0.1498181;0.17638795;0.05541043;0.1717496;-0.21510643;0.02435784;0.01839544;0.033875156;-0.15477817;-0.2912208;0.092859834;-0.13197754;-0.16398452;-0.1566504;0.051451776;0.12291686;-0.051822327;-0.049529597;-0.12858213;0.071721725;0.14337717;-0.0359593;0.2703054;0.19185093;0.020869318;-0.1918359;-0.15796298;0.18830809;0.29875955;-0.18008758;0.16743964;0.23638259;0.20311019;0.20307226;0.096394636;-0.078018196;0.06640134;-0.13064738;0.13561179;0.0059834844;-0.07359694;0.22493681;-0.18962902;0.011420707;-0.12211647;0.065232396;0.14340603;-0.28627017;0.24130376;0.063365474;0.13364902;-0.17329444;-0.17157292;-0.00649998;0.032408804;0.29141042;0.08575382;0.016362125;-0.11994086;-0.11289363;-0.045013364;0.110585526;-0.079132654;0.07999733;0.015201942;-0.03871739;0.30619687;-0.0314295;-0.059488818;-0.065779746;-0.093903504;-0.0884936;0.16208522;-0.0048942952;-0.10452258;-0.14620379;0.19100964;-0.12162292;-0.17373714
23;-0.25652137;0.10363587;0.14506744;-0.48297545;-0.17580202;-0.093967415;0.033632632;-0.054867387;-0.23961897;0.046358883;0.23523027;-0.052082483;-0.36383662;0.16566773;-0.18163976;-0.025721088;-0.4569812;-0.057880446;-0.37686536;-0.1588149;-0.06526972;0.10874026;0.009099689;0.15815139;-0.23004282;0.10468875;-0.15207371;-0.1068334;0.012073591;-0.13047604;0.038459774;-0.18252099;-0.07978127;0.22592694;0.0970483;0.19090281;0.01772224;-0.109808415;-0.16251397;0.10565018;-0.12391715;0.048355423;0.070537865;-0.09524676;0.12800656;0.121299416;-0.1299181;0.1306901;-0.16070992;0.0046378397;-0.034541182;0.17333516;-0.21618243;-0.11629828;-0.08223203;-0.06536615;-0.13400428;-0.17376041;-0.29953626;-0.060527988;-0.18773869;0.081620775;0.07143067;0.11626872;-0.24312738;0.09132243;-0.04444659;0.062375348;0.2154857;-0.099359244;0.17945059;0.106301226;-0.10141548;-0.13399655;0.2082111;0.16371942;-0.19999146;0.16152085;-0.115517296;-0.16442046;0.2099452
24;-0.030284822;-0.106363535;0.23772852;-0.08669624;0.09702225;0.005747185;-0.09491808;-0.20037113;0.13802637;-0.018840019;-0.04087847;-0.1487932;-0.2096231;-0.035282575;-0.012102983;-0.010492116;-0.119863585;0.01820901;0.033647273;-0.0074496716;-0.22040991;-0.055557117;0.06357463;-0.08512631;0.14891711;0.20607685;0.2447004;0.023081005;-0.1607818;-0.3438666;0.33936095;0.09078745;0.14758922;-0.18340209;-0.149227;0.28090474;-0.3026576;0.1002208;-0.17152655;0.099101484;-0.077171676;0.15717113;-0.10362036;-0.057691455;-0.16809583;-0.097438045;-0.20061356;-0.10645935;0.08079325;0.003089185;0.00016691884;-0.005905484;-0.23259489;0.015114247;0.025899582;-0.2083044;0.038275696;-0.18983023;0.0035294965;-0.016133625;-0.062891886;0.09524915;-0.09667481;0.01535449;0.0033094282;-0.03441305;-0.025030462;-0.097323254;0.2021414;-0.1201136;0.15035976;-0.19133167;-0.14868543;0.5290565;-0.019458596;0.2037989;-0.17042634;-0.068890646;-0.015833486;0.029913323;-0.111611746
25;-0.030130869;0.13927272;-0.044944774;0.1474063;0.14668871;0.033950813;0.14923558;0.073941;0.13732378;0.14356112;-0.04426667;0.092299074;-0.007892656;0.066062324;-0.0721913;-0.0064152777;-0.24501729;0.01961197;0.13149281;0.08698569;-0.12745713;0.18839385;-0.104635276;0.09949137;0.07035361;-0.15018514;-0.012890064;0.19406945;-0.21873443;0.022706626;-0.25919646;-0.10321868;0.03857241;0.10749274;0.18018939;0.07391394;-0.14700057;-0.12269941;-0.21329556;-0.1407304;0.11735613;0.17693768;0.059226997;-0.2095463;-0.15733199;-0.3146027;0.025764413;0.023456434;-0.09890587;-0.11818786;0.14650346;0.19518033;0.010503437;-0.2028077;-0.060523566;0.055716183;0.15926675;-0.07958971;-0.19620727;-0.19499229;0.15674037;-0.20679657;0.19556606;-0.0236819;-0.09751081;0.31432635;0.035589192;-0.14553888;-0.15160747;0.024142012;-0.054001346;-0.16881031;0.27036363;0.28410986;-0.06128816;0.09177414;-0.16463478;0.039012495;0.17219089;-0.19241747;-0.0026188376
26;0.41521555;0.12419908;-0.06218283;0.57829654;-0.058677986;-0.025610121;-0.0031847225;0.038890623;-0.1592886;-0.2011804;-0.5420289;0.09272713;0.57052755;0.17292684;0.46281466;-0.16632165;0.4143447;0.14244725;0.61586607;0.15718551;0.09262948;-0.0948864;0.2530034;0.11183162;0.33301842;-0.35065383;0.06377138;-0.24266717;-0.06410068;-0.19255555;0.21289968;-0.08646005;0.064715795;-0.22114852;0.13414001;0.109410815;0.1424098;-0.22529382;0.09429895;0.014467154;0.19805329;0.17534335;-0.17261855;-0.12470776;-0.18299599;0.2599566;0.07167189;-0.09447536;-1.7690594e-05;-0.024879672;-0.03777537;-0.18585944;-0.14663371;-0.02655602;0.25952455;-0.17951639;0.37660548;-0.014572505;0.010622487;0.10022419;0.10856846;0.16061576;0.21307537;0.0286655;-0.21981649;-0.0479508;-0.015187018;0.11646739;-0.16247486;0.09952818;0.07909049;0.070896745;0.11608479;-0.19471021;0.20089011;-0.12600641;-0.18394172;-0.100599825;0.22359824;0.15160368;0.23177822
27;-0.009442794;-0.049991824;0.07484045;-0.020962115;0.22647314;-0.2651779;-0.16817535;-0.24374096;0.11189984;0.17709422;0.070238635;-0.009315262;0.10169282;-0.24030001;0.029161876;-0.118821785;0.18526056;0.17500149;-0.013195672;-0.14297011;0.05820702;0.050910823;-0.08165616;0.17702064;0.02740778;-0.04279862;0.25359926;-0.23040715;0.08329196;-0.059521858;-0.12209789;0.029703181;0.15945981;-0.2488459;0.043327775;-0.21918085;-0.083005786;-0.07184411;-0.14962298;0.15055634;-0.0064093755;0.18626486;-0.17374466;-0.040817156;-0.12569743;0.08142405;-0.15101571;-0.12676914;-0.06020844;-0.052838493;0.10175323;-0.1632098;-0.28715613;-0.04714861;-0.14369968;-0.12170075;0.024138892;0.16008644;-0.075725645;-0.07369769;0.010418707;-0.047012754;0.19276313;-0.24427144;-0.04836653;0.13775083;0.041444533;-0.25021768;0.15511997;-0.07250978;0.01161319;-0.15711105;0.031883027;0.13396385;0.09576447;-0.26794425;-0.0116289435;-0.29222545;-0.04871846;-0.16689973;-0.014408805
28;-0.32843146;0.078129135;-0.0467951;-0.47064742;0.1783906;0.30663306;-0.19257243;0.22340263;-0.19261006;-0.107242785;0.47196117;-0.3078309;-0.22258966;0.26127842;-0.2695952;-0.206902;-0.1815111;0.030661747;-0.4372618;-0.12414583;0.07497616;-0.1853502;-0.019214343;0.1389122;-0.024940269;0.315128;-0.019888127;-0.061177213;0.22192225;0.19600146;0.3729148;0.041269187;0.05418997;0.07826539;-0.05332438;0.15870024;-0.04852727;-0.14681102;0.040325265;0.16431406;0.016799578;0.093616255;0.11762997;-0.021761937;-0.13966732;0.13879335;-0.08102609;0.1984258;0.03722129;0.13444139;0.022219708;0.17512116;0.24772348;-0.06749535;0.08956821;0.10350039;0.115848094;-0.16268344;-0.040223558;0.08928812;0.14647204;0.30915698;-0.20321745;0.18842855;0.2422564;-0.10415262;0.07028921;-0.26202846;-0.14610776;0.07147099;0.19257642;-0.022065833;0.15803106;0.062744066;0.07007212;0.08072063;-0.108444616;-0.21448602;0.04641332;0.07453562;0.0035903188
29;-0.13980643;0.09714378;0.15510787;-0.07984538;0.20885657;0.17695102;-0.22360116;0.084792905;-0.1383208;0.17504366;0.30358452;-0.21727668;-0.22181772;0.08836222;-0.034028906;0.1827987;-0.10659914;0.09945135;-0.1268397;0.19938855;-0.15217051;-0.19482818;0.16992456;-0.021544598;-0.025956515;-0.043779213;0.014499178;-0.016333323;0.11174893;0.24095276;-0.15170872;0.010181346;0.07881824;-0.06910253;0.26803428;-0.24894014;-0.12450947;0.19726665;-0.11794052;0.2510881;-0.07939456;0.02259086;-0.14805388;-0.21931297;-0.14349347;-0.2620007;0.25719258;-0.10749178;0.19658753;0.036711846;-0.11884529;0.0707835;0.17315736;0.24303709;-0.0628437;0.12213572;0.053175345;0.029763762;0.1614679;0.13198625;0.02087308;0.1813415;-0.0634896;-0.09521107;-0.1261652;-0.13718015;0.019777618;0.26755843;0.12456201;-0.03227012;-0.2148737;0.1580062;-0.14704788;-0.18765314;-0.11162054;-0.041014243;-0.010426894;0.15652645;-0.20032154;0.008581241;0.010366857
30;-0.028403485;0.08018987;-0.30777162;0.14094108;-0.2021409;0.0027180552;0.25703052;0.27253538;-0.12167484;-0.22933765;0.09588122;-0.14597186;-0.24642429;0.05718161;-0.06020308;-0.15166269;0.0050757597;0.07114293;-0.20082536;0.10019584;-0.18278815;-0.022771409;-0.17214958;0.14103146;-0.087068446;0.11449328;-0.21460547;0.29530627;0.06288203;0.5699518;-0.15023987;0.02199275;-0.078603774;-0.050457805;-0.008610963;-0.036463607;0.087164655;0.017188579;0.2493031;0.225405;-0.13184752;0.1581588;0.0004570606;0.019883214;0.09414359;-0.21884514;0.23783149;-0.048873696;0.30227828;-0.01759629;0.16624147;-0.0651614;-0.09651289;-0.0036263114;-0.06843834;0.0052873064;-0.109107226;0.036584537;0.0555566;-0.24296758;0.15967236;0.030340198;0.013584932;0.26433313;0.094039135;0.08339202;-0.02754958;-0.26089805;-0.020523798;-0.0021671802;-0.00062829256;-0.0068749464;0.11553885;0.07638795;-0.07094977;-0.25609934;0.0054021887;-0.1850527;0.10910471;-0.20418234;-0.08286499
31;0.083526574;0.024721859;-0.18304512;0.062163576;0.20211567;-0.2061161;0.14792037;-0.07346763;-0.047288284;-0.09876858;0.045010775;-0.11619408;0.20189853;-0.07306721;-0.1237879;-0.15745443;0.29734054;0.025887892;0.14635485;0.19230266;0.18803741;0.08458778;0.21123902;-0.006130627;-0.11697492;-0.20411055;0.047007926;0.13474971;-0.12847637;-0.15123917;0.14926589;0.16418204;0.15772043;0.100026466;-0.12917764;-0.022629486;0.10412973;0.044550665;-0.012756927;0.20509836;0.015875028;-0.085872486;0.13845417;-0.051411152;-0.15569168;0.049549825;-0.050855767;0.1660618;-0.2025825;-0.1804213;-0.015102974;0.04507715;0.14235298;0.105548024;0.10870076;0.22935425;0.13850501;-0.19901323;-0.0011327885;0.11114492;0.18468285;0.19413416;0.23064871;0.04018881;-0.035530496;0.13919762;-0.01279337;-0.065236844;0.18027969;-0.20818134;0.045174584;-0.066720456;0.18314987;-0.000384322;-0.15084867;-0.12853041;0.097213954;0.18341877;0.00831955;-0.053842623;0.2198772
32;-0.47157127;0.20442188;0.11067003;-0.48308718;-0.22363174;0.020975355;-0.19317567;0.11600756;0.20238106;0.32961234;0.67436606;0.1377006;-0.5119154;-0.15825678;-0.5494987;-0.022986501;-0.69185674;-0.0847072;-0.36178103;-0.22732933;-0.122829616;0.14005308;-0.09969343;-0.058060825;-0.2705596;0.52935493;0.07617953;0.07976537;0.12895104;0.007113036;-0.1956911;-0.11774496;0.06845714;-0.14486684;-0.16095674;-0.016626501;-0.06332991;-0.067514196;-0.19415103;0.10808038;-0.16149954;-0.17089964;0.19292039;0.18509518;0.21417418;0.102956094;0.09152801;0.14155449;0.24846412;-0.036001608;0.05738451;-0.114115365;0.15402485;0.18708368;0.02281652;0.07434144;0.37598297;0.1841562;-0.025022477;-0.025284646;-0.035384815;-0.10350319;-0.0658917;0.07590959;0.30977187;0.2670787;-0.0561662;0.07463945;0.04081135;-0.19174528;0.2034673;0.09848207;0.039218243;-0.06584141;0.07591042;0.09563119;0.1611889;0.0809038;-0.0817731;0.02579028;0.14518103
33;0.33079058;0.054932285;-0.15527506;0.29962444;-0.0783326;0.091308445;-0.19154191;0.1567667;-0.078648195;-0.20325384;-0.4499943;-0.090096034;0.41012752;0.1561053;0.5431742;0.09327127;0.55367863;0.02836527;0.34298202;0.03103076;0.19054066;0.013361196;0.20206256;0.11844788;0.4002788;-0.14709465;-0.21436988;0.07495242;0.006655162;0.09711852;0.16418034;-0.17040788;0.057166073;-0.2589642;0.20510465;-0.1378117;-0.08790284;0.11345781;-0.08884296;-0.11426427;0.09532474;-0.1672754;0.14315172;-0.18006803;-0.113510154;0.00024395449;0.122782916;-0.018749332;-0.12109208;0.050106645;-0.032660484;0.025132434;-0.04134947;0.23435384;0.09878605;0.13828309;-0.0130144665;-0.14503625;-0.2303133;-0.12648478;0.163819;-0.18980117;0.21452755;-0.08391741;-0.10722956;0.090938;0.0055843727;0.108952045;-0.05769542;0.07290949;0.04770522;-0.038223024;0.053598806;0.029021017;0.10924774;0.17558382;-0.059403922;0.026375951;-0.007436369;-0.22798824;-0.22515057
34;0.09686779;0.056393575;-0.16268913;-0.02023055;-0.14090633;-0.12715326;0.15420875;0.06924668;-0.19796792;0.063912064;-0.016969435;-0.100484386;0.18617742;-0.14130028;0.18861765;-0.120508425;0.18181989;0.18627937;0.30064952;0.062602505;-0.07739194;-0.015016604;0.23158023;0.033369925;-0.12779063;-0.09762004;-0.15384936;-0.019224966;-0.101459205;0.08429987;0.13563386;0.06634048;0.0190695;-0.19025278;0.07992107;0.057563905;-0.050559044;0.0830065;0.00767943;-0.117018044;-0.09360985;0.14425035;-0.10407004;0.09848432;0.15095069;-0.097458355;-0.19942962;-0.1260346;-0.07588611;-0.18014899;-0.031721193;-0.08419383;-0.023351565;-0.24374852;0.14095466;-0.22340715;0.028060725;0.15806729;0.060449224;0.023168433;0.17758155;0.03659325;0.13396485;-0.28744343;0.050497413;-0.14988436;0.20455997;0.21063443;-0.12205599;0.20905246;0.016643047;-0.20946357;-0.106802404;0.026894577;-0.11408558;-0.024560673;-0.17004842;-0.10388989;-0.21943544;-0.045898;0.025814047
camada 2
neuronio;b;w_0;w_1;w_2;w_3;w_4;w_5;w_6;w_7;w_8;w_9;w_10;w_11;w_12;w_13;w_14;w_15;w_16;w_17;w_18;w_19;w_20;w_21;w_22;w_23;w_24;w_25;w_26;w_27;w_28;w_29;w_30;w_31;w_32;w_33;w_34
0;-0.05099241;-0.15222652;0.24935947;0.14214668;0.028680427;0.30923557;0.2502188;-0.16415876;0.1178909;0.26529592;-0.2957253;-0.06529027;-0.18452388;-0.061232205;0.4719953;0.12637694;-0.15044178;0.05784651;-0.32647526;-0.6394354;-0.1205413;-0.11928391;-0.15608373;-0.3731919;0.18232514;0.0059874197;0.07831013;-0.043037463;-0.1980378;-0.25380415;0.18382335;-0.15330099;-0.15397167;-0.17757465;-0.35254827;0.3602282
1;-0.012979261;0.35064688;0.38995746;-0.34100696;0.11010252;0.04274116;-0.24005438;0.06144189;0.36218378;-0.35193354;0.112473205;-0.20187426;0.10318631;-0.08830677;-0.2882082;-0.3905464;0.26957256;-0.42895663;0.08828252;0.11240667;0.26677856;-0.08391929;-0.16331956;-0.30731523;-0.089753054;-0.23812349;-0.11450984;0.42225683;0.04402107;-0.3948258;0.16656214;-0.43368372;0.0957641;0.4898681;0.2787413;0.09757456
2;0.0029880938;-0.38461104;0.33339337;0.29468694;0.28478262;-0.20216154;-0.083507046;0.4329234;0.08231586;0.15093401;-0.072558165;-0.06695284;0.4082488;0.35821292;-0.029992947;-0.08527023;-0.28988203;0.08373111;-0.33106074;-0.44477946;0.036991317;0.2058337;0.400156;-0.24804744;0.3960259;0.02355006;0.2980145;-0.2834082;-0.075001836;-0.09423846;-0.0064928303;-0.20556131;-0.23061214;-0.2983856;-0.3688568;0.3555081
3;-0.059575766;-0.48250282;0.38158667;-0.10560984;0.20467821;-0.25739887;-0.20591673;0.2627041;-0.08855306;-0.15015675;0.014946422;0.2825053;0.14180963;-0.061901163;0.39281115;0.2518422;0.19758062;-0.16179892;-0.120039046;-0.09736387;-0.16130185;0.26450512;-0.019151881;-0.00827128;0.09112972;-0.013276425;0.10443201;-0.19502777;0.19462964;-0.26592445;-0.03219167;0.1305676;-0.33444646;-0.10687938;-0.3283293;0.18976426
4;-0.07040641;0.36440143;0.2747245;-0.25338745;0.22198921;0.33973384;-0.15448777;-0.049654778;0.4029334;-0.33449388;-0.15823886;-0.2476395;-0.09879111;-0.36840096;-0.4033678;-0.18421629;0.20644405;-0.20830832;0.008164632;-0.23001274;0.17684639;-0.3969978;-0.11198487;0.08956704;-0.37215224;0.22920325;-0.010537042;0.34035912;0.252031;-0.3660278;0.0310964;-0.4265623;0.20094694;0.39714876;0.28194457;-0.064892754
5;-0.017030822;-0.25661618;0.13054457;0.07471277;0.0568759;0.044194352;-0.11109603;0.26925611;-0.1839651;0.1848408;0.3190612;-0.23562063;-0.10326716;0.3611732;0.12853384;0.40300962;-0.06746336;0.13907866;-0.35945132;-0.08739945;-0.21377598;0.43690726;0.05192073;0.22040793;0.35501477;0.15521353;0.15392017;-0.47113842;-0.36889598;0.07337085;-0.32921845;0.20440122;-0.0073678903;-0.21530081;0.05971221;-0.12486009
6;-0.08700668;0.04189713;0.32166004;-0.23750809;-0.19150232;-0.2957409;0.1562999;-0.4040821;0.34412527;-0.04785264;-0.44005954;0.031560473;0.19495718;-0.07198702;0.2554409;-0.026973505;0.40509382;-0.25417936;0.080754325;-0.008095149;0.29074916;0.08282871;-0.17598179;-0.21580455;0.110715754;-0.18134423;0.020614186;0.0830116;0.31801474;-0.41287944;0.22902007;-0.4246579;0.060534928;0.1596419;0.29040158;-0.038546246
7;-0.07165821;0.066019624;-0.18289462;0.06360449;0.17967178;-0.4031186;0.18405432;0.06828501;-0.17199789;-0.023109678;0.27259654;-0.21196386;0.144447;0.18372911;0.19859716;0.20459229;-0.075786225;0.2543507;-0.082603596;-0.14727677;-0.21639848;0.12524119;0.2699229;0.13192408;0.33517182;0.46915644;0.40490544;-0.21831757;-0.32093677;0.38113984;-0.50931853;-0.019182803;-0.06945653;-0.538572;-0.35004824;-0.08521964
8;-0.1139827;0.06362352;-0.18597195;0.21186532;0.29944044;-0.21247517;0.27210653;0.3609229;-0.114236556;-0.12902316;0.41909483;-0.27213633;0.17725697;0.124127865;-0.1609844;0.24995334;-0.49425298;0.17572437;-0.3646149;-0.02617946;-0.17398912;0.38537177;0.0045497105;0.31503284;0.08289653;-0.026265267;-0.13577002;-0.2039202;-0.5194148;0.24718682;0.011591184;0.12647538;-0.122016735;-0.18886462;-0.16849181;0.13137124
9;-0.02349236;-0.47107628;-0.1317623;0.149336;0.2370222;-0.04590288;-0.17307843;-0.025591252;0.03405967;-0.15760654;0.2711102;0.33203813;0.10104442;0.047499534;-0.1401256;-0.089180075;0.1101254;0.246647;0.05722198;-0.22303307;0.1528127;-0.14448623;0.21777852;0.04066776;0.23472165;0.21188578;-0.07023362;-0.114081345;0.03324848;-0.12514971;-0.28970882;-0.15519391;0.08353429;-0.35821122;0.17592068;-0.051766463
10;-0.12047592;0.09155215;0.22797333;-0.091148525;0.14762616;-0.21022478;0.26765352;0.11130423;-0.0571887;0.16551115;0.17765556;-0.03304283;0.18304749;0.16767333;0.08096159;0.20140989;-0.39509463;-0.18998235;-0.36832264;0.099905975;-0.113078006;-0.08526596;0.10104844;0.25039455;0.31980437;0.31565756;-0.06943408;-0.28593573;-0.26027006;0.33297163;-0.46335223;-0.019945337;-0.16446668;-0.25694016;0.041838616;0.14558716
11;0.03994971;-0.41453394;0.20151457;0.07302394;0.068391904;0.15626329;0.008609414;0.003743796;-0.09562222;0.2136031;0.36898085;-0.44124296;0.27359733;-0.17605515;0.035338473;0.2578113;-0.32829648;0.24149258;-0.40705824;0.0866433;-0.104756586;-0.17085361;0.28839943;0.3725028;0.07426526;0.28942102;0.13884918;-0.2632052;-0.27813807;0.097077824;-0.39018685;0.15598525;-0.31116414;-0.34303138;-0.025510913;-0.081036866
12;-0.021174787;0.0026703235;-0.23565973;0.0285157;-0.34347922;0.25263974;-0.19299099;-0.10979872;0.10561129;-0.05804833;-0.38531667;0.35273358;0.094112605;-0.073647395;-0.0897338;0.18544987;-0.20055762;-0.23611365;0.19840972;0.2688607;-0.07483229;-0.17466006;-0.049464595;-0.37325612;0.019800419;-0.11872882;0.40575168;-0.14887373;0.13532026;-0.08852319;0.29388022;0.4044206;0.2876162;0.11571665;-0.043481622;-0.13272399
13;0.03361995;0.28320745;-0.20237249;-0.17032629;-0.05195296;0.011239281;-0.082373686;-0.1683983;0.38047278;-0.009867825;0.1287892;0.11043419;-0.33337805;0.069935665;-0.26518264;-0.27400634;0.053209655;-0.4939446;0.47487316;0.20013054;0.26206443;0.18073884;0.06309662;-0.21388939;-0.072322644;-0.15981756;-0.033179656;0.29848307;-0.06547876;-0.09131107;0.05147648;-0.3097934;-0.023190077;0.35340604;0.23324178;-0.33070672
14;-0.0938834;-0.13723937;0.41464517;0.13917494;-0.00984771;0.45362684;0.2873724;-0.19930658;0.080153614;0.21580826;-0.09164948;-0.27010703;0.41945496;-0.16878024;0.05126304;0.16292393;-0.008430334;0.21953826;-0.18255644;-0.32752776;-0.023568183;0.22169279;0.25184098;-0.47466403;0.09401381;0.05310968;0.38556117;-0.32133743;0.27578065;-0.014070217;0.12706111;-0.37351796;-0.38370168;-0.21795699;-0.24265543;-0.18789344
15;-0.03801311;-0.12519853;0.11948737;-0.20250149;0.03188592;-0.061564226;-0.20953567;-0.16943686;0.045699995;0.04281566;0.036799483;-0.3392375;-0.11198742;-0.18635942;-0.32293788;0.26431403;0.081254944;-0.077572286;-0.020466158;0.06713304;-0.0078106998;0.024223564;0.30906394;0.3567087;0.02966745;0.37641323;-0.24298796;0.02081586;0.106298454;0.25269863;-0.25146946;-0.18621865;0.1496316;-0.016860135;0.31764072;-0.16325022
16;-0.023237102;-0.13016894;-0.52870697;0.27013955;0.112573445;-0.21441482;0.28771615;0.15457757;-0.11785147;0.3543688;0.3607846;-0.316845;-0.030467328;0.013671384;0.16833211;0.025021387;-0.40820497;-0.02614765;-0.083035134;0.30191135;0.20144202;0.37232023;0.08415114;0.12345241;-0.16700642;-0.1755336;0.16339268;-0.21556957;-0.28979594;0.31122056;-0.2568051;0.49436194;-0.30593944;-0.4544023;-0.40608722;-0.007501874
17;0.035632513;0.15251374;-0.081774086;-0.5245161;-0.09931789;0.06556232;-0.28961587;-0.077233985;0.0408885;-0.36969212;-0.024244847;-0.0043991674;-0.2884537;-0.1758639;-0.28436908;-0.10509215;0.3484878;-0.50334644;0.29932225;0.33776405;0.034861386;0.20395179;0.13612118;-0.3505681;-0.30493066;0.106518686;-0.054006323;0.49104127;0.1307576;-0.29493812;0.2839392;-0.3671777;0.15320428;0.59926593;0.3576743;-0.17193563
18;0.051503193;0.5553951;0.26297152;0.035761133;-0.12830774;-0.02426916;-0.0041938275;0.0645137;0.06182787;-0.16316506;-0.38393566;-0.10915463;-0.3168728;-0.17057174;-0.03856566;-0.07611636;0.21660204;-0.35524738;0.3298652;0.25837994;0.05888248;-0.23208895;-0.48796663;-0.1513858;-0.44236425;0.12405114;-0.3007878;0.044342574;0.2891379;-0.31225523;0.078181855;-0.0963546;0.17916226;0.5582127;0.082798086;-0.36124182
19;0.013296831;0.29050475;0.11121746;-0.25809836;-0.41313496;0.024092207;0.2234194;-0.16209356;0.10894837;-0.14522271;-0.16616453;0.42895135;-0.32001352;-0.24964716;-0.28741607;-0.055416916;0.44798148;-0.08806413;0.4145059;-0.08415405;-0.14384556;-0.46266901;-0.2737849;-0.28563324;-0.15841465;-0.060792796;0.28790987;0.23065642;0.30034715;-0.24787678;0.21139933;0.3073716;0.15899487;0.4429238;0.42604074;-0.40065774
20;0.09134669;-0.04552162;0.19658281;0.21150707;-0.18996257;-0.17400107;-0.07219748;-0.009825605;-0.011231401;0.2661737;0.2241328;0.50398225;-0.28489226;-0.18083784;-0.08001566;-0.33191565;-0.0025347976;-0.12276179;-0.09540638;0.24996082;0.055416387;-0.073401995;-0.17587575;0.26801842;-0.010070978;-0.46218508;-0.284337;0.21450853;0.29438078;-0.47805983;0.5301036;-0.15882002;-0.18550847;0.012995708;-0.18657239;-0.129249
21;-0.0034541993;-0.36069903;0.4107625;-0.0724538;0.24538828;-0.25005102;-0.05961034;0.038523726;-0.51221037;0.13057946;0.12966807;-0.18808526;0.31943205;0.28824204;0.25743887;0.2870224;0.15925173;0.29297885;-0.11882736;0.13358486;-0.1454371;-0.058546375;-0.104840115;0.17921339;-0.1479405;0.32059276;-0.004553782;-0.414749;-0.071550444;0.07610087;-0.28782701;0.28259334;-0.38471547;-0.24540976;-0.37314954;0.19708937
22;0.045168675;0.24381803;0.19487225;0.23502724;-0.002150499;-0.03311393;-0.01171445;-0.08923866;0.26523182;-0.1480149;-0.21525724;-0.2050483;-0.2996963;-0.22522916;-0.26327488;0.10696864;-0.1819409;-0.2454248;0.08652199;0.22843666;-0.08969391;-0.2290827;0.05013549;0.15449466;-0.2751519;-0.3441047;-0.4222062;0.4437938;0.1706155;-0.14363724;0.041893825;-0.23793305;0.07717506;0.19083124;0.08716182;-0.43018347
23;0.07053421;0.33936092;0.06146703;-0.06889016;-0.4375359;0.12473232;-0.08100485;-0.11451327;0.1654968;-0.388342;0.18193394;-0.10777287;0.067074336;-0.08063509;-0.3513681;-0.21929759;-0.012313221;-0.23148955;-0.09383684;0.2564549;0.10023958;-0.3860094;-0.050875347;-0.25272053;-0.40293828;-0.1673739;-0.278855;0.34592044;0.13982609;-0.12201643;0.46946055;0.100444965;0.34025988;0.518507;0.3072915;-0.40780854
24;0.059948526;0.0047622165;-0.26532674;-0.2543982;0.22866257;0.090695016;-0.21062262;0.009582699;0.11274823;0.17729412;-0.271156;0.107556276;0.12478898;-0.33615473;-0.054449096;-0.37488523;0.059740953;-0.071796015;-0.17811538;-0.16123268;0.19849776;0.04684814;-0.033455443;-0.19155808;-0.02463785;-0.21988578;-0.08174871;0.13225794;0.27270955;-0.35327813;0.33230102;-0.28648072;-0.10736277;0.05048264;-0.06623663;0.13047376
25;0.019345103;0.050981354;-0.24365592;-0.39098915;0.23807707;0.37038282;-0.28456345;-0.1279472;0.024763133;0.10342046;-0.27476615;-0.03519649;0.18984875;-0.3503766;-0.28632864;-0.24734287;0.41090214;-0.4009454;0.15680052;-0.059433714;-0.13003409;-0.12419252;-0.426387;0.12198665;-0.24757956;0.061733365;-0.28860703;0.35798982;0.17276144;-0.15534334;0.43042055;-0.06259041;0.039298303;0.21055113;0.1684348;0.117663555
26;0.008915517;-0.08995754;-0.12639867;0.10860771;0.039474692;-0.43679532;-0.17390254;0.11418053;-0.04467722;0.061080277;0.33972567;-0.011462109;-0.24507414;0.4883068;-0.04247271;0.23505649;-0.016116215;0.08269714;0.1092484;0.14742644;-0.3147037;0.36128137;0.2483989;0.13629526;0.22735454;-0.2289735;-0.27148965;-0.36969128;-0.17409529;0.116412275;-0.056659143;0.4175228;-0.27522045;-0.45439896;-0.36887822;0.17962268
27;-0.03187829;-0.28308475;-0.07845487;0.04456695;0.027117737;-0.42066696;0.34783453;0.23161204;-0.007969309;0.24798422;0.378506;0.06406889;0.073580876;0.14893407;0.41711816;0.06607871;-0.49778152;0.18719488;0.21177931;-0.36289638;-0.0061127576;-0.002959782;-0.0941396;-0.09667331;0.11210975;-0.19135605;0.30271307;-0.22281325;-0.27471736;0.30320662;0.013296043;0.29794443;-0.33581066;-0.12076256;-0.33088115;-0.063310966
28;-0.065489866;-0.20048006;-0.039840344;0.019549092;0.16542882;-0.06663587;-0.3423268;0.22226459;-0.14244142;0.20572403;-0.18656479;0.14836906;-0.074037984;0.25361615;0.2396766;0.120502;0.03802999;0.18980154;0.25494987;0.107659064;0.3239035;-0.123200394;0.122538894;0.10198393;-0.15244572;-0.4269278;-0.04503195;-0.29118168;0.22923405;-0.18507165;0.119675554;0.117586076;0.11669411;-0.11413136;0.17604788;-0.11789405
29;-0.056020793;-0.0686311;0.15642755;-0.088282175;0.44637933;-0.3492684;0.12533091;0.23018329;-0.12877601;-0.038324866;0.103176266;0.00087257015;0.3524398;0.14460874;-0.19997542;0.28938484;0.116565265;0.28955042;0.0068931817;-0.2861465;-0.40203863;-0.22312953;0.041309312;0.15212749;0.20513043;0.39258423;-0.17149249;-0.39768362;-0.09852948;0.49073935;-0.3102658;0.2126646;-0.28992462;-0.32942498;-0.30455273;0.24957557
30;0.07209847;-0.11039639;0.061560128;-0.10155161;0.1955525;0.14809598;0.34024188;-0.052118137;-0.09308158;0.0327393;0.15765138;-0.19456807;0.2333243;0.026251638;0.07285099;0.32583603;-0.25776073;0.22352153;-0.21277773;-0.23875725;-0.31536117;0.18057334;-0.032392163;0.28013188;0.26624697;0.34982517;-0.068735115;-0.3755703;0.074811876;0.4461968;-0.19791993;-0.11303027;-0.1604722;-0.3666909;-0.26239002;0.0011071828
31;0.017185617;0.26190376;-0.35208774;0.26149106;-0.01800006;0.15880145;0.31930533;0.021596503;0.22982807;-0.08196135;-0.34534612;0.07634699;-0.26578403;-0.34607273;-0.065165035;0.07138055;0.29497278;0.10755668;-0.13287294;0.19604203;0.33490112;-0.02747342;-0.11771431;-0.3459078;-0.06227664;-0.14503339;0.01281755;-0.18051861;-0.19102983;0.1355449;-0.16469721;-0.08646179;-0.0026102718;-0.107610874;-0.07201776;0.08622211
32;-0.024917081;0.16540521;-0.5515537;0.1313254;0.08719402;-0.208945;0.07472517;0.110108174;-0.27564675;-0.014921699;0.10564697;0.62771994;-0.37120116;-0.23612478;-0.08133032;-0.056201443;0.024759766;-0.20477435;0.4147372;-0.19755262;0.17038526;-0.45798275;-0.55008197;0.15783134;-0.2720646;-0.32421768;-0.2825849;0.30397516;0.11578894;-0.27935258;0.387894;0.23887585;0.021993302;0.3744552;0.33679667;-0.1804875
33;0.016248796;-0.015853368;0.043388147;0.11343065;0.38185886;0.2267669;0.051692363;-0.03923091;-0.19748017;0.43878096;-0.12085984;-0.37595442;-0.002218258;-0.086567104;0.37771443;-0.0843152;-0.31914347;0.12921806;-0.3231185;-0.4077114;-0.41495782;-0.0031078488;0.2524341;-0.02627269;0.32376605;0.22733393;-0.019610045;-0.12941226;-0.17797197;0.21547872;0.0482668;-0.18171063;-0.31597084;-0.23098858;-0.37458056;0.45570746
34;-0.040173497;0.30292568;-0.12496329;0.15332533;0.0739905;0.067838274;-0.015209053;-0.27283707;0.43233785;-0.4601441;0.012151219;0.06191103;-0.034431353;-0.1537399;-0.19057053;-0.23935665;-0.07953846;-0.057711065;0.2561282;0.4444528;0.4973938;-0.38627496;0.067767896;-0.43154058;-0.16258739;0.11050929;-0.31413677;0.30264965;-0.2079399;0.18731666;0.34135616;-0.18955879;0.10263057;0.1614472;0.099682905;-0.21015002
camada 3
neuronio;b;w_0;w_1;w_2;w_3;w_4;w_5;w_6;w_7;w_8;w_9;w_10;w_11;w_12;w_13;w_14;w_15;w_16;w_17;w_18;w_19;w_20;w_21;w_22;w_23;w_24;w_25;w_26;w_27;w_28;w_29;w_30;w_31;w_32;w_33;w_34
0;-0.05983562;0.12822972;0.2862911;-0.26444152;-0.008129769;0.5194439;-0.4302415;0.5544653;-0.34263197;-0.2338174;-0.03824645;-0.2966105;-0.053910017;-0.15857898;0.10683704;0.3567928;0.14135173;-0.52317595;0.37219223;0.28976706;0.03676443;0.43086177;-0.2257905;-0.007055581;0.23861314;0.3293774;-0.022833196;-0.69280505;-0.05195747;-0.14923705;-0.48509628;0.17474693;-0.01809658;0.31974554;-0.17135856;-0.09934685
1;0.05130199;0.4667149;0.4387929;-0.26385164;-0.09470508;0.2355096;0.09166349;0.6110754;-0.50678897;-0.49094066;-0.4239337;-0.3477885;-0.036222596;-0.20677446;-0.12606516;0.31189448;-0.0985272;-0.5599477;0.24335597;0.5769848;0.5441785;0.35415778;-0.2851482;0.40563145;0.26838687;0.08168518;-0.075840384;-0.08544221;-0.4125997;-0.19299328;-0.40936288;-0.17092438;0.23162878;-0.19627324;0.07621239;-0.12662908
2;-0.059588086;0.3345888;0.5896865;0.12973014;-0.13114983;0.3937122;-0.11459931;0.26388463;-0.36594385;-0.4339001;-0.053074248;0.012606257;-0.43352365;0.1411645;0.1445819;-0.2893212;-0.15622461;-0.54962975;0.3564248;0.2519264;0.032408584;-0.10208028;-0.066372894;-0.13896142;0.4390793;0.15121362;0.06452404;-0.6371115;-0.076095596;0.028831637;-0.16491765;-0.102198645;-0.10251654;0.15609787;-0.2197599;0.47702944
3;0.08378743;0.07021678;0.4538965;-0.08016861;-0.0578088;0.4603437;-0.3340051;0.49703813;-0.4507941;-0.09500644;-0.18020953;-0.176316;-0.14192563;0.14889374;0.41154787;-0.17157584;-0.25108504;-0.35674483;0.0728606;0.09219216;0.28468132;-0.11326898;-0.1046031;-0.1408463;0.39862803;-0.11500555;0.39717758;-0.4058853;-0.22453175;-0.13764189;-0.24784975;-0.0034342955;-0.012110251;0.36655712;-0.26555574;-0.0008120199
4;-0.06255135;-0.12131898;0.45340002;-0.3173375;-0.14500763;0.33126423;-0.09279708;0.20744896;-0.4319026;-0.17469923;0.029047417;-0.29806396;-0.43551496;0.3145181;0.063970536;0.011624505;-0.22014536;-0.2908787;0.50406027;-0.00046174024;0.3298827;0.16561073;0.06821234;0.11912374;-0.023411518;0.15501477;0.45715857;-0.3111008;-0.21244806;0.03143964;-0.35377997;-0.08581157;0.024473509;0.05365908;-0.14939669;0.2320655
5;0.014493661;0.02943698;0.43597832;-0.44937027;-0.23097518;0.297179;-0.059463747;0.034363706;-0.4407253;-0.18218783;0.2622042;-0.17656244;-0.31235942;0.2026144;0.26543772;-0.3860962;0.16912639;-0.22268113;0.35768458;0.15654114;0.3467625;-0.059249196;-0.048100606;0.20768555;0.23552305;0.31486988;-0.07388092;-0.28544647;-0.45717937;0.11887138;-0.3512881;-0.19569993;0.06309257;0.05910676;-0.13679492;0.1437741
6;-0.04801443;-0.06141146;0.6411741;-0.25265706;-0.1428697;0.49386495;-0.06407591;0.30398357;-0.27020139;-0.51221305;-0.10481433;-0.050054833;-0.13474463;-0.11527195;0.15505815;0.12033214;-0.18513057;-0.526899;0.10401751;0.054494623;0.23020598;0.24286927;-0.028010506;0.08955625;0.08454932;0.17652762;0.19997627;-0.4458675;-0.12423283;0.04253275;-0.27017766;-0.35043377;0.23110136;0.11367077;-0.19948263;0.40623397
7;0.015562443;-0.10983064;0.1960935;-0.39847684;-0.094821274;0.13881832;0.0075917887;-0.11777047;-0.29066128;-0.09447034;0.15895209;-0.3269261;-0.24263977;-0.048311062;0.20312823;-0.032487486;0.17050448;-0.3247699;0.3590462;0.21265064;0.5153887;-0.007667357;-0.37949717;0.19964218;0.34243092;-0.040204514;0.41371644;-0.16350633;-0.3309823;0.22785643;-0.35881808;-0.35321116;-0.1413337;0.03044468;-0.14893778;0.40773383
8;-0.018924085;0.124308124;0.13856359;-0.012778579;0.16034143;0.42134243;-0.36121002;0.3566726;-0.024249764;-0.37096646;-0.11841597;-0.33106896;-0.16056311;0.022937827;-0.039541893;-0.04531393;0.023928374;-0.3472596;0.25199482;0.32317722;0.2077774;0.09811877;-0.3942205;0.14370176;0.45675394;0.3320204;0.17356196;-0.41517013;-0.30207616;-0.00045801987;-0.2740988;-0.3116843;-0.1722027;0.044436168;-0.053928416;0.35278
9;-0.06446601;-0.8124724;0.5826836;-0.35048825;-0.48354822;0.81833076;-0.13570242;0.2989306;-0.030491818;0.08139378;-0.16366123;0.45072755;0.011103269;-0.4096143;0.33076334;-0.20564255;0.71641654;-0.43844736;0.6152209;0.4399794;-0.07868516;-0.42910168;-0.34657976;0.5438557;0.53019285;-0.19342092;0.28750572;-0.4165219;-0.65908426;-0.59666467;0.27108112;0.2645809;-0.1454177;-0.46222603;-0.5246383;0.41605362
10;-0.042741347;0.1807135;0.5176074;-0.07935268;0.052666567;0.6760111;0.013728981;0.31319174;-0.55161715;-0.19885159;-0.057278093;-0.050203055;-0.4641104;-0.12876768;-0.010591011;0.07542497;0.022584716;-0.35081825;0.19921328;0.4789175;0.42476866;-0.047705807;-0.045720894;0.19414636;0.018974219;0.19191109;0.33889067;-0.17905866;-0.5250701;-0.29333135;-0.4415138;-0.37637013;0.1649376;-0.17447822;0.021214165;0.081997916
11;-0.012268071;0.0025954489;-0.014202539;-0.2522178;-0.3937819;0.11123531;-0.1884121;-0.14588062;-0.48905686;-0.2656794;-0.16413899;-0.13443388;-0.3725353;-0.016831083;0.35397768;-0.35976455;0.16750637;-0.18480277;0.2165332;0.02383379;0.5140497;0.14432406;-0.15023988;0.36596668;0.3211526;0.30387062;0.39161974;-0.0771453;-0.14137088;-0.19211942;-0.09842162;-0.09253565;0.35173863;0.41059995;-0.27468517;0.36471933
12;-0.046212472;0.13099585;0.44102955;-0.24072793;-0.14078473;0.41112703;-0.17567939;0.16909382;-0.22469066;-0.3183781;0.08326826;-0.06313238;-0.47166058;0.17346884;-0.07524403;-0.117996;-0.16572586;-0.22677636;0.31666636;0.44588712;0.23320028;0.17321318;-0.058189183;0.09184495;0.047296792;0.12398952;0.25773308;-0.41286498;-0.24592255;0.031616725;-0.42902997;-0.17061272;-0.080437995;0.14901756;-0.09193159;0.35881394
13;0.12551542;-0.124622546;0.039645046;-0.40691304;-0.068700984;0.27498072;-0.42192772;-0.11168672;-0.085721776;-0.23485528;-0.24340437;-0.25285053;-0.081873365;-0.09105937;-0.008393786;-0.45279673;-0.026877318;-0.06068427;0.21667421;0.53918284;0.33134836;0.23613873;-0.5140937;0.10941625;0.5649984;-0.03150436;0.14767432;-0.25953153;-0.1597322;0.18648075;-0.28475633;0.068957984;0.3118665;0.4524218;-0.18030424;0.26683596
14;0.122569606;-0.108239695;0.26550877;-0.28579822;0.15441158;0.15617093;-0.23844442;0.20696105;-0.22572185;-0.29259375;0.110467866;-0.29932204;-0.28993922;0.16436005;-0.035586037;-0.0281573;-0.1598403;-0.3672372;0.2196693;0.38062516;0.36624002;-0.06589679;-0.33599144;0.31836668;0.45381168;-0.09234654;0.279792;-0.37778643;-0.13697858;-0.118445866;-0.33846876;-0.09945722;-0.14770521;0.23892064;0.016145539;0.272458
15;0.06075251;-0.42653862;0.23761873;-0.47829017;0.0070402008;0.114108615;0.014571157;0.12040527;-0.23333251;-0.26402816;-0.06781586;-0.36911467;0.069972225;0.39838874;0.417059;-0.010949849;-0.07463103;-0.04444176;0.39092663;0.048469782;0.2784058;0.19029744;-0.26489946;-0.04081694;0.6217114;-0.18079689;0.14742267;-0.15795052;-0.19395067;0.32147795;-0.45280552;-0.4232113;0.1347262;-0.10784351;-0.4759893;0.16179524
16;0.04862838;-0.1295635;0.5033905;-0.15408215;0.22307804;0.10627004;-0.5112786;0.06147853;-0.43980956;-0.029177023;-0.0068215043;-0.35064694;-0.19657107;0.43579516;0.40380844;0.046421222;0.21645655;-0.31696713;0.21007182;0.16315146;0.47283837;0.02674222;-0.25451204;-0.034459002;0.21923576;0.091913655;0.04486387;-0.5203996;-0.32891327;0.09601886;-0.2781321;0.000521661;-0.014414856;0.14480808;-0.30883116;-0.014271363
17;0.12071446;-0.27039012;0.008707391;-0.3454263;-0.123586364;0.08151352;0.08017409;0.35731578;-0.24728404;-0.24055988;-0.14856644;-0.2411968;-0.39598283;0.3863471;0.3188617;-0.31040004;0.17751352;0.17628351;0.16252053;0.27004978;0.26274472;-0.02822457;-0.2657892;0.23383187;0.47639278;0.29357564;-0.022128435;-0.4163456;-0.022312265;0.10333379;-0.37095225;-0.3654122;-0.052092325;0.071996726;-0.39910787;0.28798637
18;0.0031359545;-0.17164694;0.28985283;-0.209859;0.24614789;0.3965957;-0.4485091;0.22049773;-0.5061972;-0.2248785;0.08984428;-0.08061976;-0.32521048;0.31725976;0.0022560367;-0.0366319;0.14460593;-0.14867765;0.4273918;-0.005962995;0.4355076;-0.14642358;-0.30094552;0.31197968;0.2075145;0.16324708;0.20928335;-0.4133266;0.018156448;0.0070951316;-0.32998922;-0.27764943;0.10190952;0.07963621;-0.22888535;-0.012286679
19;0.035758816;-0.20402369;0.02112457;-0.30475682;-0.24041003;0.292609;-0.4078552;0.15897165;-0.35610098;-0.051119205;-0.0057630497;0.048706908;-0.19404148;0.35079107;0.3200106;-0.31192765;-0.15226103;0.091032356;0.14460312;0.23922575;0.4260888;-0.044941068;-0.06457826;0.40312427;0.47568813;0.2800127;0.11907764;-0.27020404;-0.27968347;-0.099515446;-0.36606422;-0.015826153;-0.09158006;0.3729326;-0.4566906;-0.01283098
20;-0.063017786;-0.0068159834;0.44888255;-0.23860468;-0.07967294;0.3832857;-0.09316525;0.04190686;-0.19650136;-0.59523535;0.017757623;-0.27752024;-0.34556395;0.21176855;-0.019175595;0.07043191;-0.057105113;-0.1548409;0.5028022;0.06004767;0.15089422;0.16894232;-0.25263667;0.17039748;0.37760141;-0.059505917;0.32689926;-0.31344086;-0.21165472;0.062130332;-0.13258785;-0.29483312;0.045544885;0.28433505;-0.14496481;0.08527952
21;0.0039151497;0.05795648;0.2671321;-0.4777842;-0.35911262;0.48229378;-0.26806435;0.055435978;-0.22035606;-0.19805804;-0.12015815;-0.26552895;-0.1319103;0.38477644;-0.054681487;-0.46711168;0.14966534;0.09653849;0.05906062;0.4072254;0.2958966;0.10602397;-0.3253869;0.26967788;0.2795116;0.21283206;0.18165287;-0.042633194;-0.06867383;-0.14457542;-0.23539092;-0.14058451;-0.021528253;0.51322454;-0.3160186;0.068015814
22;0.06668718;-0.058524795;0.47725153;-0.12575775;-0.14809659;0.28546962;-0.48935625;0.17489636;-0.42774558;-0.15483998;-0.13459396;-0.22263542;-0.055297166;0.24318475;0.3201408;-0.18944834;-0.068083294;-0.5418801;0.18334638;0.25725174;0.3722727;-0.009717827;-0.15718505;-0.04853173;0.3045022;0.19698928;0.13481134;-0.27479914;-0.051978964;0.0024666195;-0.33465728;0.046184324;0.13485245;0.25608352;-0.19676127;-0.031560134
23;0.03355084;-0.0662367;0.3484354;-0.4191925;-0.25079444;0.0339118;-0.2665537;0.17946942;0.19084415;-0.34707922;-0.25645536;-0.37393138;-0.29561937;0.24087636;0.58272994;-0.3444737;0.11750583;-0.13400652;0.29232952;0.21202365;0.44484723;-0.061903793;-0.43320882;0.024020148;0.1931348;0.11033251;-0.029623272;-0.15734863;0.058985516;0.06477063;-0.3372917;-0.042206038;0.29170173;0.3045687;-0.3344178;0.18845204
24;0.021385984;-0.07402581;0.30146033;-0.18303938;0.11393919;0.16540778;-0.45032173;0.2748204;-0.34420636;-0.2824436;-0.05425496;-0.20396891;-0.24054633;0.17052436;0.20211726;-0.18910606;0.10327816;-0.14290157;0.35417762;0.19651374;0.5650062;0.068942666;-0.214148;-0.11194732;0.26708284;0.12246668;0.006243858;-0.5091354;-0.27294;0.058955397;-0.3383253;-0.13332373;0.11506924;0.12650649;-0.0013074774;0.21561787
25;0.08513462;-0.18286471;-0.092991665;-0.57331055;-0.29944912;0.14070717;-0.10769115;0.36512932;0.09550658;-0.24979591;-0.14224581;-0.11320151;-0.49077258;-0.038511004;0.398412;-0.16118364;-0.14212239;-0.096922554;0.40994707;0.19175977;0.573258;-0.11355379;-0.5005253;0.20063937;0.15366514;0.051343005;0.11382539;-0.22613944;0.06636744;-0.039511852;-0.12130594;-0.31364354;0.2743558;0.3820259;-0.17232361;0.41439456
26;-0.02117141;0.16347748;0.053066675;-0.04238298;-0.10265582;0.25693458;-0.49392492;0.34362996;-0.21242851;-0.37520248;-0.013004033;-0.22248365;-0.14451449;0.193069;0.37605605;0.026443824;0.1454362;-0.40751192;0.16725774;0.43309283;0.17778185;-0.099751666;-0.14961863;-0.021414721;0.37580857;0.05767794;0.049294624;-0.15158123;-0.14431445;-0.13216089;-0.32189366;-0.23539832;0.19850464;0.4272501;-0.45883533;0.20938541
27;0.031153494;-0.08896073;-0.0034747773;-0.5198655;-0.4625167;0.31224123;-0.08769325;-0.20592241;-0.39470515;-0.2240817;-0.1359332;0.10582815;-0.27188027;-0.0035583442;0.119014904;-0.36970767;-0.22595344;-0.19277765;0.17298673;0.37651306;0.41963375;0.3654735;-0.11109328;0.12592244;0.45027292;0.29223463;0.22811735;-0.13067742;-0.14690039;-0.11527659;-0.12821113;-0.17108846;0.40312043;0.52221256;-0.21737029;0.28282565
28;0.09875739;-0.14489639;0.57955337;-0.4304041;0.07497141;0.1808538;-0.49808183;0.038674656;-0.30391514;-0.07382188;-0.113164105;-0.23401697;-0.092440814;0.07253934;0.01401097;-0.049929477;-0.15986475;-0.49166146;0.33184823;0.19161038;0.55099404;0.2930981;-0.39806452;-0.009386353;0.10752081;-0.06381828;0.16400293;-0.47979224;-0.16264893;0.24253054;-0.22580484;0.03528824;0.17549512;0.15116692;-0.014864717;0.24840456
29;0.045835607;0.13139984;-0.00784044;-0.40052068;-0.23287614;0.3878916;-0.27660027;-0.19914587;-0.35091218;-0.0103797885;-0.20401174;0.097592406;-0.46808535;0.12694989;0.180358;-0.34711167;0.031422682;0.15339676;-0.017828772;0.40679953;0.4947038;0.14749493;-0.29258212;0.32290748;0.37241396;0.10717311;0.21780929;-0.31439918;-0.2116374;0.08280878;-0.1438479;-0.25099865;-0.037363388;0.52231115;-0.3665778;0.24763204
30;-0.05193972;-0.056825828;0.16006275;-0.19804431;-0.15290467;0.5113546;-0.14224152;0.14228758;-0.55968994;-0.3418171;-0.008321818;-0.030002713;-0.019850422;0.32935575;0.2727051;0.027256997;0.07369901;-0.4749319;0.17048001;0.34546387;0.31407064;0.19532974;-0.4268035;-0.19723384;0.25818697;0.3240011;-0.051525127;-0.14324874;-0.21203092;-0.15963256;-0.077453755;-0.38604414;-0.011170955;0.41246992;-0.10064245;0.16242877
31;0.01632191;-0.4635103;0.40875858;-0.23093262;-0.3056226;-0.10163247;-0.15069489;-0.0055994797;-0.36255684;-0.06854318;-0.14102094;-0.2445497;-0.4090371;0.013210718;0.12888303;0.0739679;-0.11523077;-0.050949525;0.52183187;0.4049979;0.1092271;0.33833867;-0.30199662;0.080729015;0.20400475;-0.12051876;-0.013670689;-0.11404334;-0.25448355;0.3243625;-0.4954198;0.03865714;0.3293506;0.43643;-0.32437313;0.5126759
32;0.11890879;-0.19742557;0.17352489;-0.10924514;0.10138106;0.415139;-0.4629585;0.2311371;-0.47234854;-0.007945098;0.012219601;-0.30374306;-0.24718653;0.1655407;0.1352587;0.14955656;-0.24962915;-0.2116161;0.4604146;0.028209584;0.47002757;-0.102757215;-0.26735958;0.17683722;0.20912768;0.025289666;0.41347724;-0.17280391;-0.32485583;0.014021281;-0.16225755;-0.2958881;-0.018682862;0.16496216;-0.26194426;0.05139338
33;0.05172229;-0.14356491;0.53176636;-0.33068445;-0.20046793;-0.01814539;-0.35853568;0.2047535;-0.33737186;0.3001441;-0.21650462;-0.22113785;-0.47422427;-0.18588391;0.37439534;-0.40727964;-0.1510834;-0.21606036;0.33547097;-0.034748275;0.08387739;0.39385518;-0.14948592;0.347246;0.3372113;0.24742064;0.17690352;0.065533765;0.017000457;0.07729949;-0.3428549;-0.18832856;0.22448;0.15619777;-0.4392512;0.3838476
34;0.044536605;-0.12079643;0.085542105;-0.17221245;-0.07257142;0.2729271;-0.15187865;0.4100455;-0.35964814;-0.08913289;-0.08997912;0.000785649;-0.43590927;-0.015624981;0.26337364;-0.0010827362;-0.080465645;-0.47308418;0.3110758;0.09183809;0.1738636;0.29017174;-0.23102425;-0.0013655104;0.3571723;0.34906232;0.21994829;-0.45196393;-0.106274985;-0.06045406;-0.041362695;-0.40067384;0.02810088;0.1858626;-0.27720097;0.31611866
35;-0.08400426;-0.056252528;0.625465;0.013167243;-0.260085;0.2297112;0.0036519673;-0.0739812;-0.5270874;0.17913255;-0.2529096;-0.09598474;-0.6265728;-0.23328069;0.6778012;-0.5447206;-0.088858336;0.04581993;0.4794095;0.28012034;-0.27681205;0.39495277;-0.6499637;0.11537467;0.43742123;0.18346938;0.03360053;0.25739357;0.13204388;0.16912325;-0.598084;-0.32498428;-0.13476731;0.18433487;-0.021450652;0.46086487
36;0.07193643;0.013956016;0.25089332;0.012333537;0.08190401;0.28350472;-0.43345356;0.18693791;-0.49984318;-0.41260877;0.13552743;-0.07833071;-0.2902306;-0.13918194;0.23565948;-0.13918771;-0.15106986;-0.1733223;0.4545298;0.2800462;0.119234286;0.019090017;-0.41768673;0.29555106;0.28405717;0.037434597;0.20297888;-0.15501875;-0.14517187;0.12426554;-0.2678603;-0.3395632;-0.0071959007;0.20210877;-0.087993085;0.24893537
37;0.12387568;0.034902465;0.44127753;-0.37307012;0.15846005;0.24898122;-0.06938689;-0.009596175;-0.32309687;-0.34552324;0.0837525;-0.2150895;-0.2954023;0.011305201;0.27847078;-0.41640934;0.3550242;-0.13534817;0.07260835;0.3349634;0.26115814;-0.0001183851;-0.37558448;0.25945857;0.2589336;-0.16004673;0.24234076;0.0137254875;-0.29425365;-0.066746965;-0.2182466;-0.24000214;-0.08380841;0.26571667;-0.47567722;0.3222045
38;0.00914664;-0.034868058;0.37205264;0.10947553;0.022312935;0.23596025;-0.42792737;0.19056101;-0.17047834;-0.4779353;0.1635465;-0.22309183;-0.27007797;0.039564032;0.028245872;0.051240478;-0.21950592;-0.49689537;0.3608924;0.3580822;0.13464837;-0.10055246;-0.22552736;0.42062852;0.34501958;0.3162535;0.12522472;-0.44452697;-0.3862404;0.09329856;-0.05654282;-0.16771863;0.074959174;0.13268125;-0.22133309;0.14503054
39;0.003890202;-0.20938247;0.36033478;-0.3724945;0.1597231;0.0495085;-0.18053837;0.3954321;-0.20748447;-0.17114934;0.22895837;-0.27468598;-0.5607146;-0.063536935;0.24989869;-0.47192723;0.30612195;-0.33055073;0.021442842;0.47062683;0.29227218;0.34417826;0.14175464;0.09883297;0.2872693;-0.018225312;0.13367869;0.081084676;-0.27600816;0.074373715;-0.17924279;-0.37244287;-0.11642715;0.3808038;-0.5641945;0.035897225
40;0.011741174;0.033311382;0.44327086;-0.14796187;0.084061064;0.15223692;-0.16452454;0.078447185;-0.6129373;-0.5596097;0.23950972;0.075017355;-0.40326774;-0.004546691;0.13609456;-0.24723059;0.063844286;-0.54326075;0.5023898;0.3568961;0.34811032;0.30067867;-0.09369708;-0.10847722;0.008246184;-0.022332706;0.3260117;-0.310434;-0.097931355;0.010269573;-0.14117682;-0.015403472;0.16334338;0.15934943;-0.43740842;0.13972515
41;0.0763089;-0.38892043;0.21351102;-0.26210806;0.34048927;0.26805526;-0.44687775;0.3211545;-0.23730297;-0.24373646;0.028615545;0.09102243;-0.56358033;0.08564426;0.057251923;-0.5417535;0.048365064;-0.4940424;0.6174485;0.17285937;0.74279344;0.44153902;-0.16678488;0.063567065;0.14287677;-0.18833858;0.041204713;0.21239725;-0.22659123;0.20866589;-0.05073988;-0.08066888;-0.44318885;0.2652383;-0.48402533;-0.14208212
42;-0.04391385;-0.14186957;0.37228566;-0.046818595;-0.0988025;0.34692177;-0.1313118;0.1477544;-0.4877784;-0.5342808;-0.13346282;-0.3103505;-0.3807746;0.077047;0.26667377;-0.11303202;0.028091168;-0.56413287;0.4569562;0.065455705;0.5522787;0.2889187;-0.10280039;0.12160562;-0.04209659;0.20303169;0.049396742;-0.14611506;-0.11686225;0.1707258;0.15839903;-0.043220807;-0.31607032;0.3429352;-0.3088763;0.13736184
